digraph Tree {
node [shape=box, style="filled, rounded", color="black", fontname=helvetica] ;
edge [fontname=helvetica] ;
0 [label="node #0\nbond emotional families emotionally powerful gripping emotions haunting heartbreaking tragedy portrait tragic emotion riveting harrowing complex dramatic deeply compelling intense feelings bonds loss painful wrenching guilt pain sensitive intimate engrossing sadness intensity devastating raw acceptance nuanced impact extraordinary forgiveness  <= -0.1\ngini = 0.498\nsamples = 100.0%\nvalue = [0.467, 0.533]\nclass = Drama", fillcolor="#399de51f"] ;
1 [label="node #1\nbond emotional families emotionally powerful gripping emotions haunting heartbreaking tragedy portrait tragic emotion riveting harrowing complex dramatic deeply compelling intense feelings bonds loss painful wrenching guilt pain sensitive intimate engrossing sadness intensity devastating raw acceptance nuanced impact extraordinary forgiveness  <= -0.287\ngini = 0.34\nsamples = 43.3%\nvalue = [0.783, 0.217]\nclass = NOT Drama", fillcolor="#e58139b8"] ;
0 -> 1 [labeldistance=2.5, labelangle=45, headlabel="True"] ;
2 [label="node #2\ngritty historically fiction portrayal accurate accuracy facts realistic portrayed realism perspective depiction detail conditions details depicted account insight portrays authentic harsh portraying captured environment factual inaccuracies depicts daily glimpse aspects  <= 0.1\ngini = 0.193\nsamples = 24.3%\nvalue = [0.891, 0.109]\nclass = NOT Drama", fillcolor="#e58139e0"] ;
1 -> 2 ;
3 [label="node #3\ngini = 0.137\nsamples = 18.9%\nvalue = [0.926, 0.074]\nclass = NOT Drama", fillcolor="#e58139eb"] ;
2 -> 3 ;
4 [label="node #4\ngini = 0.354\nsamples = 5.4%\nvalue = [0.77, 0.23]\nclass = NOT Drama", fillcolor="#e58139b3"] ;
2 -> 4 ;
5 [label="node #5\ncorrupt corruption  <= -0.195\ngini = 0.459\nsamples = 18.9%\nvalue = [0.644, 0.356]\nclass = NOT Drama", fillcolor="#e5813972"] ;
1 -> 5 ;
6 [label="node #6\ngini = 0.422\nsamples = 14.9%\nvalue = [0.698, 0.302]\nclass = NOT Drama", fillcolor="#e5813991"] ;
5 -> 6 ;
7 [label="node #7\ngini = 0.494\nsamples = 4.1%\nvalue = [0.445, 0.555]\nclass = Drama", fillcolor="#399de533"] ;
5 -> 7 ;
8 [label="node #8\ndocumentary footage documentaries interviews extras interviewed informative included unrated interview clips commentary bonus archival deleted featurette packaging trailers  <= 0.255\ngini = 0.351\nsamples = 56.7%\nvalue = [0.227, 0.773]\nclass = Drama", fillcolor="#399de5b4"] ;
0 -> 8 [labeldistance=2.5, labelangle=-45, headlabel="False"] ;
9 [label="node #9\nbond emotional families emotionally powerful gripping emotions haunting heartbreaking tragedy portrait tragic emotion riveting harrowing complex dramatic deeply compelling intense feelings bonds loss painful wrenching guilt pain sensitive intimate engrossing sadness intensity devastating raw acceptance nuanced impact extraordinary forgiveness  <= 0.154\ngini = 0.299\nsamples = 51.0%\nvalue = [0.183, 0.817]\nclass = Drama", fillcolor="#399de5c6"] ;
8 -> 9 ;
10 [label="node #10\ngini = 0.432\nsamples = 19.9%\nvalue = [0.315, 0.685]\nclass = Drama", fillcolor="#399de58a"] ;
9 -> 10 ;
11 [label="node #11\ngini = 0.178\nsamples = 31.1%\nvalue = [0.098, 0.902]\nclass = Drama", fillcolor="#399de5e3"] ;
9 -> 11 ;
12 [label="node #12\nwidescreen dolby theatrical surround anamorphic ratio  <= 0.738\ngini = 0.474\nsamples = 5.8%\nvalue = [0.614, 0.386]\nclass = NOT Drama", fillcolor="#e581395e"] ;
8 -> 12 ;
13 [label="node #13\ngini = 0.32\nsamples = 3.3%\nvalue = [0.8, 0.2]\nclass = NOT Drama", fillcolor="#e58139bf"] ;
12 -> 13 ;
14 [label="node #14\ngini = 0.462\nsamples = 2.5%\nvalue = [0.363, 0.637]\nclass = Drama", fillcolor="#399de56e"] ;
12 -> 14 ;
}