digraph Tree {
node [shape=box, style="filled, rounded", color="black", fontname=helvetica] ;
edge [fontname=helvetica] ;
0 [label="node #0\nthriller suspense hitchcock hitchcocks thrillers suspenseful tense thrills alfred taut  <= 0.227\ngini = 0.164\nsamples = 100.0%\nvalue = [0.91, 0.09]\nclass = NOT Mystery", fillcolor="#e58139e6"] ;
1 [label="node #1\nchemistry twists mystery trek premise inspector bizarre musician fascinating intriguing clues twist partner guessing mysterious journey weird slowly subtle van duo landscape quiet revealed intrigue odd performer pair pairing conclusion traveling mission seemingly reveal desert meet possessed unexpected surface lonely build builds search individuals pacific assigned identity resolution trail increasingly understated robots scifi linear  <= 0.187\ngini = 0.079\nsamples = 84.1%\nvalue = [0.959, 0.041]\nclass = NOT Mystery", fillcolor="#e58139f4"] ;
0 -> 1 [labeldistance=2.5, labelangle=45, headlabel="True"] ;
2 [label="node #2\nthriller suspense hitchcock hitchcocks thrillers suspenseful tense thrills alfred taut  <= -0.287\ngini = 0.052\nsamples = 73.8%\nvalue = [0.973, 0.027]\nclass = NOT Mystery", fillcolor="#e58139f8"] ;
1 -> 2 ;
3 [label="node #3\ngini = 0.032\nsamples = 60.3%\nvalue = [0.984, 0.016]\nclass = NOT Mystery", fillcolor="#e58139fb"] ;
2 -> 3 ;
4 [label="node #4\ngini = 0.135\nsamples = 13.5%\nvalue = [0.927, 0.073]\nclass = NOT Mystery", fillcolor="#e58139eb"] ;
2 -> 4 ;
5 [label="node #5\nscience scientific scientist investigation scientists investigating lab research experiments investigate theories mysteries theory  <= -0.55\ngini = 0.25\nsamples = 10.3%\nvalue = [0.853, 0.147]\nclass = NOT Mystery", fillcolor="#e58139d3"] ;
1 -> 5 ;
6 [label="node #6\ngini = 0.134\nsamples = 6.2%\nvalue = [0.928, 0.072]\nclass = NOT Mystery", fillcolor="#e58139eb"] ;
5 -> 6 ;
7 [label="node #7\ngini = 0.384\nsamples = 4.1%\nvalue = [0.741, 0.259]\nclass = NOT Mystery", fillcolor="#e58139a6"] ;
5 -> 7 ;
8 [label="node #8\nchemistry twists mystery trek premise inspector bizarre musician fascinating intriguing clues twist partner guessing mysterious journey weird slowly subtle van duo landscape quiet revealed intrigue odd performer pair pairing conclusion traveling mission seemingly reveal desert meet possessed unexpected surface lonely build builds search individuals pacific assigned identity resolution trail increasingly understated robots scifi linear  <= 0.361\ngini = 0.454\nsamples = 15.9%\nvalue = [0.652, 0.348]\nclass = NOT Mystery", fillcolor="#e5813977"] ;
0 -> 8 [labeldistance=2.5, labelangle=-45, headlabel="False"] ;
9 [label="node #9\npilot planes plane aerial flying flight airport air  <= 0.153\ngini = 0.371\nsamples = 10.8%\nvalue = [0.754, 0.246]\nclass = NOT Mystery", fillcolor="#e58139ac"] ;
8 -> 9 ;
10 [label="node #10\ngini = 0.475\nsamples = 4.5%\nvalue = [0.611, 0.389]\nclass = NOT Mystery", fillcolor="#e581395d"] ;
9 -> 10 ;
11 [label="node #11\ngini = 0.25\nsamples = 6.4%\nvalue = [0.854, 0.146]\nclass = NOT Mystery", fillcolor="#e58139d3"] ;
9 -> 11 ;
12 [label="node #12\nrobbery heist bank  <= 0.428\ngini = 0.492\nsamples = 5.1%\nvalue = [0.436, 0.564]\nclass = Mystery", fillcolor="#399de53a"] ;
8 -> 12 ;
13 [label="node #13\ngini = 0.468\nsamples = 4.4%\nvalue = [0.373, 0.627]\nclass = Mystery", fillcolor="#399de567"] ;
12 -> 13 ;
14 [label="node #14\ngini = 0.286\nsamples = 0.7%\nvalue = [0.827, 0.173]\nclass = NOT Mystery", fillcolor="#e58139ca"] ;
12 -> 14 ;
}