digraph Tree {
node [shape=box, style="filled, rounded", color="black", fontname=helvetica] ;
edge [fontname=helvetica] ;
0 [label="node #0\nhorror creepy scares scare spooky chills scariest frightening terrifying haunted chilling eerie scary demonic scarier creepiness witch scared blair  <= 0.27\ngini = 0.201\nsamples = 100.0%\nvalue = [0.886, 0.114]\nclass = NOT Horror", fillcolor="#e58139de"] ;
1 [label="node #1\nzombie zombies undead  <= 0.272\ngini = 0.053\nsamples = 87.9%\nvalue = [0.973, 0.027]\nclass = NOT Horror", fillcolor="#e58139f8"] ;
0 -> 1 [labeldistance=2.5, labelangle=45, headlabel="True"] ;
2 [label="node #2\nhorror creepy scares scare spooky chills scariest frightening terrifying haunted chilling eerie scary demonic scarier creepiness witch scared blair  <= -0.038\ngini = 0.034\nsamples = 86.3%\nvalue = [0.983, 0.017]\nclass = NOT Horror", fillcolor="#e58139fb"] ;
1 -> 2 ;
3 [label="node #3\ngini = 0.018\nsamples = 80.4%\nvalue = [0.991, 0.009]\nclass = NOT Horror", fillcolor="#e58139fd"] ;
2 -> 3 ;
4 [label="node #4\ngini = 0.218\nsamples = 5.9%\nvalue = [0.876, 0.124]\nclass = NOT Horror", fillcolor="#e58139db"] ;
2 -> 4 ;
5 [label="node #5\ninspirational inspiring poverty uplifting determination strength struggle courage inspiration desperation overcome despair heroic heroism  <= -0.271\ngini = 0.494\nsamples = 1.7%\nvalue = [0.444, 0.556]\nclass = Horror", fillcolor="#399de534"] ;
1 -> 5 ;
6 [label="node #6\ngini = 0.285\nsamples = 0.9%\nvalue = [0.172, 0.828]\nclass = Horror", fillcolor="#399de5ca"] ;
5 -> 6 ;
7 [label="node #7\ngini = 0.391\nsamples = 0.8%\nvalue = [0.733, 0.267]\nclass = NOT Horror", fillcolor="#e58139a2"] ;
5 -> 7 ;
8 [label="node #8\nzombie zombies undead  <= -0.084\ngini = 0.383\nsamples = 12.1%\nvalue = [0.258, 0.742]\nclass = Horror", fillcolor="#399de5a6"] ;
0 -> 8 [labeldistance=2.5, labelangle=-45, headlabel="False"] ;
9 [label="node #9\nvampire dracula vampires  <= -0.741\ngini = 0.467\nsamples = 3.7%\nvalue = [0.628, 0.372]\nclass = NOT Horror", fillcolor="#e5813968"] ;
8 -> 9 ;
10 [label="node #10\ngini = 0.344\nsamples = 2.3%\nvalue = [0.779, 0.221]\nclass = NOT Horror", fillcolor="#e58139b7"] ;
9 -> 10 ;
11 [label="node #11\ngini = 0.468\nsamples = 1.4%\nvalue = [0.373, 0.627]\nclass = Horror", fillcolor="#399de568"] ;
9 -> 11 ;
12 [label="node #12\nrobbers robbing  <= -1.315\ngini = 0.171\nsamples = 8.3%\nvalue = [0.094, 0.906]\nclass = Horror", fillcolor="#399de5e4"] ;
8 -> 12 ;
13 [label="node #13\ngini = 0.459\nsamples = 0.2%\nvalue = [0.643, 0.357]\nclass = NOT Horror", fillcolor="#e5813971"] ;
12 -> 13 ;
14 [label="node #14\ngini = 0.15\nsamples = 8.2%\nvalue = [0.081, 0.919]\nclass = Horror", fillcolor="#399de5e8"] ;
12 -> 14 ;
}