digraph Tree {
node [shape=box, style="filled, rounded", color="black", fontname=helvetica] ;
edge [fontname=helvetica] ;
0 [label="node #0\nwar soldiers vietnam combat military troops soldier army iraq sergeant sgt commander unit fort civilians civilian  <= 0.839\ngini = 0.101\nsamples = 100.0%\nvalue = [0.947, 0.053]\nclass = NOT War", fillcolor="#e58139f1"] ;
1 [label="node #1\nnazis nazi german wwii germany germans holocaust hitler  <= 1.221\ngini = 0.04\nsamples = 94.9%\nvalue = [0.98, 0.02]\nclass = NOT War", fillcolor="#e58139fa"] ;
0 -> 1 [labeldistance=2.5, labelangle=45, headlabel="True"] ;
2 [label="node #2\nwar soldiers vietnam combat military troops soldier army iraq sergeant sgt commander unit fort civilians civilian  <= 0.196\ngini = 0.029\nsamples = 93.9%\nvalue = [0.985, 0.015]\nclass = NOT War", fillcolor="#e58139fb"] ;
1 -> 2 ;
3 [label="node #3\ngini = 0.013\nsamples = 87.1%\nvalue = [0.994, 0.006]\nclass = NOT War", fillcolor="#e58139fd"] ;
2 -> 3 ;
4 [label="node #4\ngini = 0.216\nsamples = 6.8%\nvalue = [0.877, 0.123]\nclass = NOT War", fillcolor="#e58139db"] ;
2 -> 4 ;
5 [label="node #5\nrobbers robbing  <= -0.539\ngini = 0.494\nsamples = 1.0%\nvalue = [0.444, 0.556]\nclass = War", fillcolor="#399de533"] ;
1 -> 5 ;
6 [label="node #6\ngini = 0.428\nsamples = 0.8%\nvalue = [0.31, 0.69]\nclass = War", fillcolor="#399de58c"] ;
5 -> 6 ;
7 [label="node #7\ngini = 0.0\nsamples = 0.2%\nvalue = [1.0, 0.0]\nclass = NOT War", fillcolor="#e58139ff"] ;
5 -> 7 ;
8 [label="node #8\nnazis nazi german wwii germany germans holocaust hitler  <= -0.617\ngini = 0.446\nsamples = 5.1%\nvalue = [0.336, 0.664]\nclass = War", fillcolor="#399de57e"] ;
0 -> 8 [labeldistance=2.5, labelangle=-45, headlabel="False"] ;
9 [label="node #9\nhippie  <= -0.635\ngini = 0.357\nsamples = 1.0%\nvalue = [0.767, 0.233]\nclass = NOT War", fillcolor="#e58139b2"] ;
8 -> 9 ;
10 [label="node #10\ngini = 0.188\nsamples = 0.8%\nvalue = [0.895, 0.105]\nclass = NOT War", fillcolor="#e58139e1"] ;
9 -> 10 ;
11 [label="node #11\ngini = 0.43\nsamples = 0.2%\nvalue = [0.312, 0.688]\nclass = War", fillcolor="#399de58b"] ;
9 -> 11 ;
12 [label="node #12\ninspirational inspiring poverty uplifting determination strength struggle courage inspiration desperation overcome despair heroic heroism  <= -0.03\ngini = 0.357\nsamples = 4.1%\nvalue = [0.233, 0.767]\nclass = War", fillcolor="#399de5b2"] ;
8 -> 12 ;
13 [label="node #13\ngini = 0.497\nsamples = 1.0%\nvalue = [0.541, 0.459]\nclass = NOT War", fillcolor="#e5813926"] ;
12 -> 13 ;
14 [label="node #14\ngini = 0.232\nsamples = 3.1%\nvalue = [0.134, 0.866]\nclass = War", fillcolor="#399de5d7"] ;
12 -> 14 ;
}